0.8458336335924429
-0.2252644036428555
-0.07216789111927373
-1.0172335038511222
-0.165942880374301
0.2618353040071189
-0.5819315623362104
0.5001033197942711
-0.07832285009447233
-0.21879080805563522
0.40277720816268425
0.47962175147139186
0.9596784520114092
-0.5968298006066814
-0.619921071928945
-0.7632133286861469
1.0063853748785365
0.4948774649917582
-0.7733446169347901
0.5542916110027862
0.8078333193393323
0.128772888714888
0.8143218218530521
0.7326296912739421
0.6255252092345149
-0.5934033675921457
-1.0149713017371964
-0.39452541348880527
-0.40473977052719956
0.6213630488808122
0.8812171630670687
-0.5595464925103468
-0.6362060666788376
0.988994860288682
-0.8756396457626738
0.10516572558102012
-0.11477240483877225
0.3398934759979848
-0.04207406063459618
-0.6818701985910973
0.5928619564810356
0.9164550493181245
-0.4246398702312355
0.47261972973344357
0.4850204980684749
-0.1755555939211266
-0.23749373618956726
0.15688026477023942
0.24957752719981316
-0.8494566881132279
1.0819410312110986
-0.712512339531219
0.9220583293582669
-0.29838052755197647
-0.4597924728100336
0.7549234930828133
0.6050271449811998
0.5848146552744957
0.954919448608619
-0.7325904968190597
-0.728389804850333
-0.9529246878759952
0.024282356735441966
0.5122053644152761
-0.48776687845898337
0.15953057796731396
-0.17711114930933314
-0.7507754019096269
0.7814187620325528
0.2566477759416834
0.48951050100274085
-0.07369609460763056
0.5353318299909101
0.26117719650977894
0.5585131227797601
-0.59220630550714
-0.5891061109539631
0.3914173171664872
-0.9300722854463138
0.6862014979187406
-0.08963599346457797
0.8918214678131415
-0.5693397109647127
-0.3737910137156971
-0.7502363369430008
0.2391195134153153
-0.35221601168044303
-0.4813697160178567
0.5764425813172166
-0.10536478545337973
0.22268326022435958
-0.6098179038993207
-0.042016070206463585
0.7848121566944999
0.2795231043399551
0.2112528099398412
0.9080456066761196
0.097929235473554
0.09450511772214314
0.7629883248875633
0.4068722684555295
1.036812764369453
0.5615631590203278
0.9883375991256094
-0.6000520226083654
-0.4639252457227556
0.5151361018664349
0.7528995558779163
-0.5726884942317036
0.552529112257061
0.03765381962616199
0.7945067371032765
-0.81942699889567
0.8817077292301075
-0.20788107449351023
-0.5140263421757585
0.5630853879483408
-0.3441749699317145
0.8934218709345523
0.3045111371153493
0.33322498824972824
0.08922215030735513
0.5208731508223257
-0.7350956165949352
0.2964200286324534
-0.9375633891156265
0.24808791794029442
0.7226521063511222
0.17318394577840768
0.5154465445086283
0.4025094645572025
-0.7237231704429689
-0.71890564164383
0.26384778948265075
0.14320515774768677
-0.17058522079759336
0.0922049816787387
-0.48895376592831574
0.40036705629460934
-0.7328098664686229
0.6974770310947798
0.09775740876730526
-0.5131183113754887
-0.2881071683120817
-0.7352833560175693
0.15950816699791856
-0.8647970765827175
-0.21542239225650062
-0.806093820159699
0.2629500746528788
0.504694930018659
0.1002989044753618
0.3314145152031911
-0.9975233921951605
-0.7596355889139005
0.05626973834861141
0.171575668023465
-0.13393624232235174
-0.4014345746204562
-0.4947755637417197
-0.894378862102346
0.2735218339238721
-0.9636538304916317
-0.5019944972490378
-0.7451528223846636
-0.9083836728841151
-0.9800021987778401
-1.1649256445274485
-0.20438765417723334
-0.18378154045831602
-0.3395417034017026
-0.22930014810904395
1.1987871391922267
0.31138148230428464
0.42322199091777657
0.4455792939124965
0.9525470024276748
0.7191340389731911
1.0914185968992363
-0.19722851921258291
-0.7959058497068309
-0.39384785715691106
-0.10597530229657372
0.17319643818417818
0.0821802290975624
0.4980110899727985
-0.3408079699973501
-0.3030330806589432
0.018920433093296548
-0.588877197958453
-0.055257837638873264
0.14100235910036552
0.22344544552977677
-0.23269883846575934
0.2418029445502887
-0.09774215373985395
-0.7911044180264755
-0.4623261436574769
0.29414298225168317
-0.2885867572686587
0.9427395597204402
0.4694227326710114
0.32498677161734957
0.2931222989047726
0.8427582137225256
-0.6803069095070389
0.1039508564889102
-0.7651651912597653
-0.8171613531303688
-0.5580151539356035
0.7646806440862779
-0.6253777286662299
1.2017269837990578
-0.7338036206693885
0.6013407312680554
-0.05281127842029665
0.34888293866411496
-0.16341833781407034
0.874717467750115
-0.8684117971986922
-0.19492617264114243
-0.15561699716531718
0.10126409894775552
-0.2537214427860546
-0.16815090494364585
0.1190683465782859
0.5263609539637979
0.28936330407138366
-0.3416593330550799
-0.8682345281134296
-0.0010831227978600477
0.748981602550203
0.2036934619257312
-0.4755088400709067
-0.2863306228646448
-0.10317845365414294
-0.33559293335323
-0.7519654968853323
-1.140882877222235
-1.3542453570413437
-0.06767124116956906
0.08898572458890885
-0.897052328059844
0.06063071288199419
-0.7953153328188938
-0.8965704065895097
0.06297692079904535
-1.6395907688027427
-1.6019824616549687
-0.07005391435394354
-0.8839946754634599
-0.5205614373627611
-0.4495464430443493
0.16436131873967932
0.7371069924685183
0.16400974266234858
-0.6392320065043082
0.029146014332588344
0.7683426956866439
-0.36959460697320523
-1.1846707563381866
0.26541185484711516
-0.4818444292097539
1.314501373954397
-0.13104739069480886
0.009762348583228109
0.43206934352112625
0.7620797899269933
0.39553804574295426
-1.1000843316751283
-1.2133878325622447
-0.736732090433633
0.6520976233630251
1.3631781420790765
-0.6443162278720358
0.2968596018360859
-0.008691625174079842
-0.22668092622519032
0.4211808830922007
0.026390034362957608
-0.11352406568465834
-0.10046198276189444
-0.6403014105869878
0.021171202184605987
0.9094622599712199
-0.9000739866309468
0.7452201807186005
-1.2475690654512113
-0.3066233363285874
-0.5824695551623222
-0.5178932683935906
1.4937072179801336
-0.13442379591291287
0.2906651957215249
0.31579200015413633
0.4570559525952751
-0.79931313560886
-1.1546996111175398
0.09854615425761737
0.2848081470019531
-0.6954346041958843
-0.9439413392309137
0.5455873423594362
0.34401832365550367
0.12946596728693582
-0.19662126870679625
0.38931729728933806
0.5997555329952478
0.47632349994648737
-0.12738798729464107
-0.4255465404171779
0.5953237054594283
0.7544123365532138
1.407031005951322
-0.817754570276498
0.49883385735342056
-0.3401107303259723
-1.3726324344495466
-0.3055316736956079
-0.02333384691338691
-1.4864204479457241
0.04947139543162726
-0.5818407475843821
-1.1332990893611348
-0.867838516374827
-1.4277617985869033
-1.6185511411284899
-0.32864790202095273
-0.4996768296971721
-1.0981696428434764
-0.09585993966040567
0.08425005881084321
-0.758734302129138
-0.11176059216123961
0.7507135270759993
0.7512228753259413
0.10631780249980771
-0.9103955614088526
-0.40520580076795976
0.4651674647073849
0.6421310720689709
-0.3043899460665712
-0.016282688104373614
-0.5717065431082171
0.24318556912253442
0.5028803152665962
-0.4502707189408772
-0.40456754925119065
0.7300747647229369
-0.8333099469508352
-0.8252522103363193
-0.9596522884201766
0.4864964380115837
-0.052686095778110786
0.4970991589055111
0.560947731045305
-0.0714428373991363
0.6691087645609628
0.16562410666030303
-1.0405788364835913
-0.678862336886658
-0.001194732289819811
0.522799769824668
-0.39705691936038945
0.10204938468900811
0.47436378888772834
-0.15752209363080305
0.037640165965618255
-0.3864159551150126
-0.4938631378592858
-0.5004590221949137
-0.6577667406999088
1.3967008112540056
-0.5750377799129835
-0.04317785590748054
-0.8001855922082226
0.7226229987128092
0.16419255460409543
-0.6127787895344687
-0.16572633777018142
-0.03643832240603141
-0.3880248251191847
-0.7559653477429722
-0.6859795188999627
1.048810545389218
-0.6316162856856788
-0.7119372595532847
-0.4527201753107203
0.7580999931344784
-0.9130156824957103
-0.3557423101257897
0.17737722519326882
0.7179693346972555
-0.5962924111343111
0.8421294047969693
0.1300571517119291
0.6128982805083787
-1.5932210732815393
-0.8671179505879547
-1.7029887871497045
-1.0109196764155342
-1.2721759542545585
-1.419273050907369
-1.1916855706293243
0.5194004463808093
-1.4091579346011718
-0.7152055438926022
-1.2007989112829331
-0.7693821965266832
-1.505639241208851
-1.5689154826411351
-0.22810326487442706
-1.9283727226571414
0.5330316018605789
-0.7547235387936324
1.4445649381196168
0.6755547717179766
-0.46226517319116556
0.23399607729644578
-0.14638708753730678
0.13667554173765883
0.6238012201516147
0.4350640136695469
-0.21168932107896604
-0.668730272796463
0.7721635233667045
-0.738290791956399
0.6273352209446248
0.6510672792365015
0.6511599125714287
-0.5050241073101773
0.5005915190898959
-0.2317641889385168
0.06328336226337594
-0.5968432228871587
0.9711608744956997
-0.3765643568698229
0.02837547422611624
-0.3320927185650835
0.3505002338243399
-0.6832218190736886
0.3588587222138197
0.1348788751757457
-0.18001480740343423
0.9509554615274405
-0.23167250070101414
-0.3960429797526108
-0.6758656231923565
0.9480694824125968
-0.33517680148892304
-0.36280789614369974
-0.6527319119516006
0.9154346615643789
0.1185912939026825
-0.31198525715832637
0.3588351765438928
-0.26711303140373666
0.7410477523241439
-1.2599260436495932
-0.6819057753702406
0.20853894730959666
-0.21477488339329043
-0.15030673780577697
-0.7032131489306843
0.12841807885197887
1.149895961655069
0.23944968261205912
-0.8605771183110164
0.5696783097594736
0.5580469815036417
-0.07462449774249835
0.5397114091065558
0.953827395967235
0.6653793783828335
-0.7612072602640381
0.14141688693681023
-0.517589490424569
-0.45976063270557826
-1.9955266759976404
-0.10561088190940389
-1.970476483308674
-0.5745233303317243
-0.2186219973121354
-1.497711328896274
-0.5148986224897865
-0.930064957276118
0.5506890393471199
0.12691374201002817
-1.4443316855205537
-0.7867654680691656
-0.3603257160323916
-1.405427247615447
-1.243473486194524
-1.320286122488611
0.20015461622611316
-0.5845357849165042
-0.4444523755093045
-0.4146711879783289
-0.20937021409508194
0.5873135126283624
0.7955689780796713
-0.020973467136485624
-0.23013495612647686
-0.622860720311284
-1.1239433806201573
-0.7906620805368947
0.5755490797506101
-0.05163129689010204
0.6449484744369589
-0.4407269522122328
-0.11492023240486457
-0.1698735802007898
0.7777943262793178
-1.0619398543624388
-0.3789767569989788
-0.7061024125492072
-0.004060379454966443
-0.6845497913034364
0.04604557605573859
0.9877171411382317
0.13271099953493493
-0.5104940543537613
-0.17622942976152836
0.11515244215953735
0.7539370041453102
-0.0028405695826208
-0.2752623987434925
0.6670108714395744
0.8150539586404921
-0.860258878017232
-0.9840101500947412
-0.5871351735048019
0.2608086697415677
0.8310875235015884
-0.48682658503738896
0.6211468292234561
-0.28651930511955365
0.26375168825983075
0.24730549275919667
-1.1152678232580449
0.5919711557130206
-0.6387509562984262
-0.6306287572548338
0.18258213657914535
-0.23697374095067358
0.7361833377126683
1.014185178202094
0.5021905703159188
0.7532773877012059
-0.3954902422739407
1.03530539638144
0.11422880503325561
0.7870396244194942
-0.10089829948774631
0.25714298658714596
0.9099531213107686
0.6282273590088702
-0.2347970694680573
-0.8068688657673665
-1.2884441151529407
-1.0353773579590257
-0.5987880615914578
0.4354718272121562
-1.2229149405323418
-1.0825602232038207
-0.5380542553043318
-0.045767893689836865
0.5641404908567781
-0.841147850857825
0.4162462273146415
0.3966387228002676
-0.5823410607613774
0.29572946217291707
-0.4889709703691777
-0.6872505014825065
0.7902912462257466
-0.12350036996858096
0.664294799025465
-0.023750090972911586
0.32632171672518373
0.7535522661946974
-0.2639531037178773
-0.47459626364195473
0.2722134034776245
-0.30052386975995116
-0.2858348278332644
0.9307029607541153
-0.43332200956094213
0.00984966584000313
-0.48777128853190677
0.502230796686832
0.43098960523474916
0.8491626751365138
-0.232384309222329
-0.25974588653401204
-0.6267219218960514
-0.8361604003951308
-0.014195618381085674
0.9996009733246543
-0.394324118497302
-0.28317685879569066
0.6059410549060311
0.8801213220061265
0.03407929280768901
0.17470922921745968
-0.9368566010943569
0.16331115198955337
0.05899498409166468
0.9172191643069634
0.9972265412697141
0.2052199618595043
-0.3285185502178671
-0.36598667526064593
-0.7110758268797692
-0.1038479380862638
0.6296477039250937
0.7315616292006697
-0.0161006313984789
-0.48728964172641276
-0.3822586044982572
-1.0009119971135767
-0.3162906898030186
0.9878998604194076
-0.8402559742093455
0.21401811104560053
0.5642520668514694
-0.3549447643967185
-0.6990383238146985
-0.2613456323866825
-0.2510509286399364
0.6178207295859476
-0.3774483784705557
0.6414374495050861
-0.3921986912540494
-0.0826233635587379
-0.22553580122681138
0.3724474654486072
0.06517602891425286
-0.6843456771718913
-0.7090110137460538
0.46182621843038674
0.06208286795689894
0.18356176986403863
0.2389818511376596
0.8077980808946814
-0.7646591349090823
-0.12751998644496004
0.08398697328877819
-0.2971766247215569
-0.9546718473053033
0.5376295039413594
0.5266800185981888
0.07380683016336707
0.4184794358396431
-0.4998484348697969
-0.2644836096301698
-0.6700234023721586
-0.6894007835611026
-0.10880876832853005
-0.5998265923462986
-0.22122154148930484
0.6266597112122263
0.6534450906932414
-0.7649348953691628
-0.6229900213794194
0.833929211458485
-0.020299882560092124
0.24837561026016042
-0.423621608593035
0.7534374198539122
-0.16957021541207284
-0.8760283689656947
-0.4538940550611754
-0.2500615372758048
-0.955769228688694
0.2457843632691351
-0.24402436925175053
-0.5732042060950147
-0.7819009922708323
0.40216192206429713
-0.02516043566795836
0.2939128773178399
0.20601947563718226
0.47330765733606694
-0.3520593909593813
0.44591356613659494
0.9398326888178294
0.7552501925337416
0.15604610043100278
0.16322026911582466
0.7827120346517922
-0.8921796814684195
-0.2140313153888364
0.3940984317091917
0.9384077745122148
-0.8290779738854126
0.2902423594402743
-0.8163424395336261
0.19344851382005473
0.5524150266295473
0.24240644771296704
-0.8212577254588617
-0.7503148591618024
-0.4038983069468336
-0.3631595681046841
-0.6759277629149676
0.447257245701864
0.2450055175782173
-0.3642235155009107
0.930272035412453
0.11959668602023694
-0.4082010472461143
-0.3356888281348346
-0.11750930322304343
-0.05259511245131665
0.8474094501717784
0.7558121159709714
-0.0514068456453991
-0.8775895369463719
0.5530265171445851
0.08976486376767105
0.2774845084174724
-0.9502951453043058
0.7735625750516126
0.1974331350204523
0.3499928782370807
-0.8235738514077207
-0.15892962654218198
-0.8676644954224776
0.1544278441819407
0.43320070109792497
0.6195540296189919
-0.5987694658573628
0.8560864574137557
-0.37648149783052676
-0.7439336929081675
-0.4857045945574515
0.305167422662546
-0.3497843991381931
-0.1190689555727769
-0.411433679984865
-0.4522083336389344
0.5537571534222536
0.36718278839292906
0.6537935308262608
-0.28318852070663375
0.5479832081580192
0.6071650766215526
0.17249119745493546
-0.0941913354910208
-0.37015476002343006
-0.18660440339923934
-0.3754470506290464
-0.4873736875590475
0.8706347687822984
-0.8347008759517569
0.08792739496544626
0.826115149317054
-0.24698620691047424
0.48737384203627837
-0.22711628430331388
0.30540096928592014
0.33147054834873324
-0.24148457494961084
-0.8746611855179536
-0.30815898197932984
0.21054939871068168
-0.7904670921322134
0.3626918241728796
-0.4596355024291426
-0.7493510421876279
0.6148548807483711
0.038931406830205795
-0.8318848560245355
-0.45607150320802653
0.4157569312586642
-0.732041679095844
0.7001921282676455
-0.6018859556611875
0.49978155630924476
-0.9076143045599945
-0.14428661888866756
0.6689369654082564
0.4196149872301677
0.10251715198946076
0.16313104382364604
0.9306283068084957
-0.14422284335270086
-0.3931023397989166
0.3821551918494189
-0.511539396819602
0.502323655381927
0.5698303696515858
0.8415216654053705
-0.9492440696915085
-0.10141214738306004
-0.9922498127408435
0.18806227916397833
-0.48265023828799025
0.016458536831112446
-0.5794593578359926
-0.010937126903269062
0.6207228880966882
-0.0675032955459157
-0.8556462931208257
-0.0542446000489437
-1.0297934607970454
-0.284145886300865
-0.8554411494562111
-0.09858279384843045
0.5559154586819485
1.6103529678272535
1.1389350343301408
0.7608176618404713
0.43564979737570864
0.9445561593010398
0.5444229012425769
0.9241744712909084
-0.1996221620605936
-0.0670754747618076
-0.4279636837579582
0.6091347891901693
-0.014882307321352206
0.8886979174649743
0.7138976222681266
-0.6898066514913419
-1.2572033328083052
-0.10808090032058347
0.7725710823375393
-0.366761746904946
-0.7347901792163004
0.9507518512910627
-0.6629213988776903
0.11115182301735937
-1.1554688358297005
-0.837321838021357
-0.3012778447537444
-0.658577409932878
-0.8330956366864599
0.6071523857355001
-0.5397271696606434
-0.12666823831818008
0.34047824112017794
0.4462850987719733
0.9575213817397952
0.6926042682994626
-0.32365469423485493
-0.40236766271136637
0.046443760669349965
-0.6798330709577576
-1.1906519157888495
-0.730154833311423
-0.19640478132525652
-0.6444949547120857
1.0701988488722287
0.585849218758832
-0.24001294656942673
0.8490919570043458
-1.2699620233507982
-0.4853585936559379
-1.197859518269756
-0.172785253412707
0.2368318793471893
-0.5530318237566572
-0.44663265700342325
-0.9548141698150094
0.3409328045512939
-0.7159327382860983
-0.709818901508178
-0.4971404897448213
-0.3695999649493395
0.7537531402393483
0.6496828625725002
-0.2784627086314738
-0.04364093779690427
0.2533600061193102
-0.7310917578353591
-0.6909872929802008
-0.07184141026051583
0.4891542465184511
0.4289788482333906
0.9849347024080715
-0.2734093507222154
1.631831494925606
1.273663294052122
-0.03007831656324517
1.0245319434035849
1.5342899134063426
1.2248858366143656
0.3556031223230701
0.6652027725220466
-0.8501974464437753
0.639641211938797
-0.7595071029797686
-0.429700637039898
-1.263621700416925
0.3361259892360181
0.16089426170235102
-1.1833046906815758
-0.9611192646170793
-0.11263884812204951
-0.2107124632582972
-0.9083648665431299
0.9657726374870268
0.6101413780257425
-0.9080910117321124
0.9655477989829728
-0.7741866425058375
-0.9570451278668021
-0.5490896973710623
-0.9464060715863132
0.7735100196199787
-0.9797081251731561
-0.20740210620354027
0.9952031809790702
-0.7770752826003586
0.8042350574753816
0.19544461903757632
-0.3250295352174855
-0.34354337017708336
0.1765255661024634
0.12661578658007183
-0.44838888520788034
1.0472943275018303
0.8552954430217843
-0.6305898379077695
-0.043855678753077734
-0.7377346647738053
0.8568367009701412
-0.3029910689574753
0.007903280433425142
0.402510832522713
-0.8823631168404655
-0.4425327250222979
-0.9791415275004645
-0.32902731936624713
0.037386636325283024
0.26304074412575673
0.23980396282608574
-0.4110756482471905
0.5116407903805369
0.5137010196817391
0.09484379064053128
-0.7987572476017144
0.40517353406565754
0.5078317388078876
-0.5294736750467095
1.1523300820668743
0.756227936139827
-0.6212685250141332
0.9620813764642053
-0.5429388271657449
-0.49300184683567494
0.21981254936455724
0.21794393263440975
-0.32562467284689184
-0.1960051298421599
-0.49795651662845053
0.1569708055042247
0.9976910505419292
0.5420837537078196
0.3342221553828052
0.012368962507725415
-0.9329768630121101
0.1446650337304297
-0.4278381151283007
0.004281349345228226
0.680713660527812
0.22318196793419712
-0.6159709392669154
0.622724994479071
-0.8732361806072008
-0.11509521828329444
1.006118941155013
-0.5718767836881541
0.6352687615046242
1.2883761101231148
-0.6834336651620266
1.1224151072811617
0.28777529735149276
0.953463227853695
0.14422738282143052
0.1028843999744645
-0.9821916512548066
-0.6482260479372146
-0.3842036941462117
0.7960326944420137
0.6293382486136903
-0.4211493225569011
-0.5369085629782502
-0.3766863261498976
-0.5867749838396124
0.5882355523461117
-0.6291941535788099
-0.7207609141882834
4.254158618721693E-4
-0.5360112886478378
0.16127078294562924
0.7252628815277415
0.15865462026740412
-0.5033454683975871
0.3260844325738479
-0.8342676320614676
-0.8383369895489707
-0.25984520578426673
-0.22038911165871955
-0.7586224121864855
-0.2804761934337743
0.42169877895360774
-0.657752424329066
0.08254146836099796
-0.12752474926319746
-0.052425822939378516
-0.6965653845303736
0.8129636009730348
-0.3386551273669285
-0.9304108428622397
0.8213028531999977
0.8410483149804724
0.2909467742825218
0.7440743692027988
0.38528173214348227
-0.43800116816737833
0.038328461331020414
0.32694380949095025
0.5975614673654601
0.7301542262423433
-0.48369501595052466
-0.37938224545000887
-0.830883287131913
-0.04067292059533356
0.776042978932195
-0.47480037022009614
-0.03226684673214364
-0.21711390656440155
-0.8293696507167465
-0.7365600520909658
-0.6099071007800017
-0.7360520796102779
0.40224133221067593
-0.6540766753128762
-0.603292005587249
-0.9678467242200716
0.23633178683839834
-0.6863084572680527
-0.2561109686598136
1.0927317028254413
0.3429426556033956
-0.3848743642201598
1.2124218330643053
-0.08975643235482231
-0.4409079181841036
0.6363922367480297
0.6109006964671767
-0.372239916890665
0.3562817482551763
0.2511668186573785
-0.45764959902763175
0.16170411539897656
0.4512116453385987
-0.029102447099270286
0.511026882076433
-1.0118627402239277
0.0012871986984597517
0.24036527257689655
-0.4421797760375554
-0.6419285435565827
0.5578475601621296
-0.17478263397066707
-0.5627523937706335
0.8511168192168755
-0.42006185059813306
-0.8061692343962332
0.4715607938505982
-0.4364120873078574
0.05756067684835697
-0.23471105500027378
0.665200384720188
-0.5816116717892126
0.5284721515709232
0.2515171827141981
0.6061801095837274
0.10634631953691054
0.1702785370781795
0.6607276793063024
0.6899747500734453
0.7866806301525473
0.8015879050638337
0.4862949898170016
-0.33652575442061594
-0.4270219352748401
0.16406492755539048
-0.4648654598326294
-0.3620940703985364
-0.7306419423459154
-0.5314998847453962
0.011488087002165193
0.487867348959497
0.02631914802213725
0.03542188769261223
-0.7801738462687762
-0.6155079963028934
0.35308069455815216
0.904764349277357
-0.4625902920340599
-0.6628965913412566
0.04902847296384958
0.652933154335723
0.5744936393609166
-0.38868873987824454
0.4155624496243533
-0.9180586793185017
-0.8403013353688138
-0.857162110474715
0.052728219756992045
0.6767707968478457
0.27414853385890314
-0.8527589967395185
-0.9259318654606743
0.8870315632895558
-0.8934624219590395
-0.7310587103822923
0.6412108086640733
0.33776070156390886
-0.191662220836241
0.2643014208381733
0.6809189255268986
0.17478157584439458
0.5208075193391051
0.30049228311593706
0.7605351297016603
0.5895612055636164
-0.9177802853599537
0.7108732498490055
0.719829286279765
-0.21781893023717158
1.1933313863929653
-0.1305352289912435
-0.5903957536110053
0.26916442080947844
0.4545563287727414
1.2702904962602635
0.4095942253855716
-0.6767531706767199
0.7370928845574689
0.21492911058588282
-0.8011043732622416
0.037878080214382104
0.15706116487813992
-0.5118563154034423
-0.5952234500815277
-0.3483875049314206
-0.31226510537900193
-0.5629917097876482
-0.8080982020442158
0.6482968465300487
-0.3749015712670545
-0.9937734379406027
0.5343624993253171
0.9347961961259459
0.9210545435395415
1.0216941541225049
-0.331074809216916
0.45437002146805505
-0.9648259760585565
-0.20100285966922615
-0.08400530134495354
0.3830033489745468
-0.4367762690100301
0.31902686758431
-0.138093795841269
-0.1356139024395806
-0.38489538855252303
-0.6974703868365
-0.8411484149773032
-0.5879347448132952
-0.3393270234321184
0.8744467811988621
-0.719177522949474
0.7835182194477616
-0.3955624327462812
-0.9976879877815539
-0.75221360888835
0.8696200849293316
-0.18399003799568822
-0.6229916689103701
-0.1316895836288543
0.5033087105017248
-0.037439296723356476
0.4347436221061953
0.533548029376925
0.903054225992588
0.1714087589766562
0.9231821531616413
-0.7414979521876341
0.8570294851654485
0.704256094957063
0.6221453073766493
-0.4096880999202523
0.27853486223012713
-0.8204004305029131
0.09926774489699586
0.460389300886618
0.27852182309792517
0.06319318608186425
-0.7274226008988377
0.8199174186480988
0.27194521632431423
-0.0766709931513463
0.2041047101807099
0.3303483442365376
0.2064131397385021
0.7425505055059193
0.3065715999254927
1.0186151247555488
0.46853732002055587
1.1166704888866879
0.8855213555283499
0.8279900179302886
0.8008400375707643
0.2772120448670341
0.8124881391548309
0.5445281896189341
0.13931227842836374
0.5709317971435787
-1.2859949365728847
0.9440756460944226
0.08214441585065702
-0.25012265497589903
0.6601746441651342
0.8820353947258437
0.020232571575877233
0.6876827219821943
-0.24646835428934508
-0.7135118467494641
-1.0954407925035397
-0.27997450774731814
0.2647383125210916
0.30013598443842593
-1.1406878503736841
-0.21804673902724137
-0.4320652070514614
0.8195426938359439
0.7457102289489757
0.9589011160798508
-0.3987051628941784
-0.35228616693469106
-0.15296515168916525
-0.1116338986883536
0.399506208802888
0.7131850385278339
1.0789634131636154
0.8025830440956045
0.45458611017149164
-0.30658566779857166
0.32498391547616
0.35234470465736045
0.009414919663334853
-0.6244076717911438
0.8413476534731011
1.030873337441057
-0.390185774933288
0.9501987587777254
-0.5765393009835624
0.25792063720300606
-0.4003017845940369
-0.44704788088256064
0.007398840753557234
0.22156800316431388
0.5486178445736407
-0.9972770008227223
-0.4728764162834998
0.23837510897775727
0.9683057524987673
0.8140293167423749
-0.045237613107519815
0.6690923032686278
0.22103340582321815
1.0227499061367942
0.44875719645515033
-0.4293834825935967
-0.9434644145737907
-0.6137931153614453
0.2543666448027866
-0.3335608150187004
-2.709955571811971E-4
-0.6626824535179189
0.6966867404120239
0.6337113344855451
0.58364331466148
1.0196424746961783
0.46495508029687155
-0.401573043308122
-0.06934691508912293
1.2690532632480183
-0.7975682723196548
-0.42678556139247975
0.8338079143370182
0.05908914339262797
0.5507405302160988
0.09160882286437828
0.4894558584142513
0.3262195488974306
0.4869295000066111
-0.5681566972957719
-0.2954871666452165
-0.2324360825073163
0.13068797182249825
-0.6314434641018616
0.07532973309671243
0.6615868628439667
0.5916832935742189
-0.8465347690184789
-0.633776613932399
0.46796596318577804
0.6911871385041806
-1.0205544304325607
-0.5956295283085864
-0.45384067855026444
-0.44182674244025044
0.4806199079591557
0.29455321971371906
0.7325351158585416
0.41913994076017974
-0.6554577084288533
-0.092240620665204
-1.1709280626532856
0.6341690094591752
-1.225576403206441
0.8523015565028946
-0.006838003680095461
0.6649976172564267
1.0477338308888526
-0.9376029956032867
0.19390526625539262
-0.6315949481892145
0.4309369562303608
0.8241460149959441
-0.2817138458707673
0.8771120124497576
0.9858150576263569
-0.14286695202253016
0.9055237218431562
0.5580698778161375
-0.3366749314829764
0.9306644291087025
-0.17175781539330454
-0.46808670871149327
-0.41825899786830356
-0.6338495499405903
0.7442515605454145
-0.47769388391598255
0.3805365794905872
-0.6566516124439543
0.8103775039462844
0.5201574487416019
0.16727348179502444
0.3283287476871859
-0.2223694447486663
-0.4227779867961899
-1.3147541726609806
0.6999553654842319
0.39440740410816466
-0.06436329037236543
0.9803342051461852
0.17681735172125013
-1.0000822610360516
-0.3963092630141381
-0.641061019606336
1.1353256632171773
0.028389546944217914
0.7581541177925125
1.562260928727896
1.4492010039749978
0.26862478849808397
0.07690102296429173
-0.5059574329759504
0.16720767387871519
1.090071041549616
-0.4092288576135426
-0.0216740372839507
1.1853127940351036
-0.5021928583777227
0.6625528395929274
1.135333249243638
-0.669434928350984
0.7656444918239287
-0.36661616730731317
0.46082851258951574
-0.3246442251332049
0.6663919245492698
0.18093920973062416
0.9605727160601294
-1.1196608059500364
0.7033883348731711
-0.43068218715425416
-0.014957698157759047
-0.31960379466453087
-0.281043948318179
-0.2880447056915414
0.42194421553803085
-0.22202674795905455
0.33813900402364827
-0.010774138510137471
0.22416479745868548
-0.34238900241040526
-0.9133070671401453
0.7186448695122418
0.28569714766322507
-0.7134048580350933
-0.9454472200148791
-0.9176504983650404
1.00125922982482
0.9089262319421891
0.08608690360890847
0.8948047496876719
-0.013348276946859583
-0.4747154692602851
-0.39911074606485153
-0.3742161976088165
-0.6690682095039393
-0.5984318845534953
0.40405583167397857
-0.7369253448584825
-0.13215342876463665
-0.7973065197171705
-0.3374077932184423
-0.9838711111831371
0.9729989803243382
-0.5302789862338448
1.034536602547491
-0.38342747903862745
0.5409074140159376
-1.0002920111150748
0.6163233722551977
-0.21129548576518764
-0.800189203172504
-0.06593282600288672
-0.950809383999367
0.06737178835191225
0.35851867610199467
-0.13468205388761206
0.023051969268763184
-0.3774875178830699
0.7785532109081577
0.39701899337666813
0.21653107750550515
-0.7807393887075835
0.4560197258866245
0.47715332060984944
0.8844439018136439
0.5832764966530547
0.8014782435239702
0.6924968865565567
0.783430407764736
1.035231105646858
0.35709548293633325
0.9126239229920998
-0.5648269028237102
0.3093496545858912
0.2969376325925616
0.07890839014903706
1.794605487593823
0.4531676479746794
1.5321370557765677
0.10824437199488182
-0.5389616952403881
1.1466783057313277
-0.8371502139556157
0.9668461250887557
-0.10262311791309875
-0.7408670835858293
0.5375792221716622
-0.7032410994697131
-1.6517192449659155
0.014225843091465325
1.1275894379526656
0.7052517297391652
0.16644383465114027
-0.06942544822781715
-0.4893589498078814
0.5395515342430088
-1.215851964544838
0.6560119307494328
0.11014757784650578
-0.47606663931989257
0.6677733025619579
-0.5371376459469848
-0.028434849098888656
0.7767294439292438
-1.6419964965941203
-0.9957892121874998
0.8295275597140699
0.9484697991317458
0.05480466017985533
0.8960215622195047
0.7469868950402243
-0.5315376048174874
-1.262265528022023
0.44093231860868065
0.16013307890904493
-0.19021915434846415
0.8688134853502142
-0.05894978570330496
0.0886139844252063
-0.47702905738802914
-1.66597707492751
-0.7589226605881094
-0.9423499955326468
-0.163555683979842
-0.13038860156163157
0.08156278772167638
0.17399988019018323
0.16283079658163602
-0.9984352257738202
-0.8353708889527127
0.2555929364612757
0.13277845535502797
-0.7582905927927175
-0.21156999856663816
0.3892184447055245
-0.5595573451700177
-0.857244392858637
0.7781883828257292
0.028909556075152887
-0.4898447133905661
0.24625748349982923
0.5205744546982285
-1.7623276695789236
0.46348542507024587
-0.011050225785223617
1.4355278764041919
0.765459850222744
0.674499189838455
0.6142575061755219
1.8495293410546052
1.8154887144553422
0.0026149561064773455
-0.34916783682361435
0.9852224902278054
-0.20122148559598815
1.0344205640334547
-0.004935474105326008
-0.14013025900912643
1.6691924058759844
1.3392096153374147
0.6655306217864906
0.675994547696314
0.15069778733755437
-1.5462123066136026
0.4319914669792322
-0.15310295234598725
-0.8174407423842607
0.7091966559811462
-0.9906266301462792
-0.48626830140909144
-0.47286949777717796
-0.6142315482175859
0.20333970988805516
-1.2934012849777328
0.274207748172695
0.7500404885347589
-0.04148194245727743
-1.296161146871859
0.3780941530392552
0.2263079776612625
1.0446490005428748
0.019064539784567014
0.6898747508568492
-0.9699374591074187
0.533198257212536
-1.6049549616240826
0.7656233683271312
-0.8760661983156699
-0.6317101146959109
0.6763423576806601
0.8098423167506181
0.9474202519960031
-0.05434956227027765
-0.3075829603063021
-0.9390096326114954
0.062458079002218225
-0.7097899037470377
-0.3452751684126387
0.15871142511304645
-0.6875411928782669
0.7115629959893641
-1.4117792721051727
0.8276311110493131
-1.2899438356070454
-0.3815534865633372
-0.12859101827676422
-0.15235568634358895
-0.1582908243191424
-0.7099833480857622
-0.5972809752006469
0.4284839560956055
0.21271494175217454
0.1305028828257373
-1.4102892858069527
-0.9354310033143556
0.7612942724295789
-0.05217058251684594
-1.3754942332884061
-0.4840639354690184
0.5384953051656656
-0.6267013240853627
0.2556461210911656
-0.35573538410412686
-1.3210766550260427
-0.044264544190770576
0.026400855412294304
0.9740887454581518
0.9404726330663936
0.13582100381705292
0.06732328617125424
1.656853263944068
0.3121069278974304
-0.1566826831423995
-0.7695562955762402
-0.3091880889410018
-0.09626232315005227
0.45801509561232134
0.9308601796536321
-0.046256134269936085
0.17276934590576493
0.4499493505211559
0.6670001515026818
-0.09550919859852908
-0.7910415263799077
-0.3931021644700196
0.1722356064354995
-0.6693849860937748
-0.638910545522535
-0.7802659764762374
0.9296311659703078
-0.20480728401792508
1.1185976186555648
0.6890759647350378
-0.6916070310072011
-1.5056017827584538
0.3859792875093837
0.6510835957810357
0.4639039110945484
-0.7179369026817217
0.06649573491659
-0.836260209243601
-0.36227468542425834
0.061497053240539445
0.9587317434801055
-1.4768542141312098
0.7409811352272504
0.14206337935097263
-0.48488973810295666
-0.8106192512814241
0.14079390931755287
-0.40311534842934993
-0.9304409777799141
0.7610599719080156
0.4087836743740838
-0.5534632752197255
0.0013235581951858144
0.0662244351761836
-0.2777688106393348
-0.4689947127406294
0.37697880689628416
0.2928124673607062
0.3270356046318357
-0.5900720168819975
0.7502526860911154
-0.9550765650252006
0.5281866098528023
-0.41497346822436176
-0.15342786136687858
0.27561739302805754
0.9799857946864947
0.292938208000304
0.44700816286836664
0.6740312549192373
-0.06070043791601254
0.19553911258219486
-0.7508666160766362
0.7350491466227954
0.25143634841279733
0.022597767127097164
0.7320881204006209
-0.5921158145992449
0.007049677134113752
-0.365983320007526
-0.35901174087663756
-0.7140746720688491
-0.11298314515369573
0.2573991243845752
0.3264013410457204
-0.17770956004716904
0.6140868818674206
1.7205638310984035
1.1171204151001644
1.1530424583924603
0.9443823705709635
-0.3541660804815677
0.10647544513226921
0.9490161909733968
-0.18906301688930513
-0.6096768151302171
0.4916650724253638
1.1101385195740079
1.2408197476790288
0.0729248683596801
-0.42817870127065805
0.2026047472746796
0.12713537908188183
-0.8218059104040218
0.2773985656984741
-0.022329996452064016
0.1799278726057254
-0.19915373066763808
0.4598517772174998
-0.6500416427766119
0.847530304118901
0.4669842086796814
0.25356508957941676
0.6009159425503583
-0.3521560404413955
-0.7567177399183915
0.7634166459796533
0.7830195579135824
0.14934673582142513
-0.8541221233007591
-0.665713976413906
0.994736486998816
-0.5258647566740089
0.3621106095261326
-0.5151242515292294
0.08261360504202941
0.5554756449570457
-0.21923093565119822
-0.3771214741269146
0.8166562696350488
-0.19591006218542018
0.8475368960142389
0.43918649851924624
0.3519608634145366
0.9356241072830767
-0.5045025244718226
0.2767047639693331
-0.4124989902903004
-0.8895344792151654
-0.7367352648862422
-0.49904292792137445
-0.6065932152257374
-1.1748165860176811
0.571474982235781
0.7297590146907782
-0.8676224690116537
0.8915908737177002
-0.3420979276546774
0.0023057993694846845
0.96164693470449
0.7986516879394392
0.7195105454417916
-0.0768921374768374
0.9163358195643707
-0.7719380305104134
0.8889492981174273
-0.2021648066326554
0.9189871701398495
0.20555660964404776
-0.6853239938518123
-0.4490043782659028
0.4994946376129217
-0.09428851687761358
0.34945447378626643
0.49603717425699584
-0.43808199536189835
0.11226325759655023
-0.5644996842301765
0.6881258511812994
0.6734486506215068
-0.6163606463557202
-0.6203168494899806
0.1659139546872448
0.04267956096396506
0.12327196267616035
1.4552023950170607
-0.02858827251746133
0.4919704936247497
-0.4420498317209063
-0.4892438271823579
0.8443646786051018
-0.23565264637206598
0.3446888380444716
0.5515988216671188
-0.20693579774610393
-0.4215411013446928
-0.8289501810837769
0.6432364410638132
0.613351484652159
-0.9621641750193342
0.5056589671320766
0.7706759193944236
0.4377238711258402
0.13099255978829816
0.22907035191198255
-0.5093646639536831
-0.2690455318844043
-1.427915201184185
0.8171090605216313
-0.3611915476966424
0.7055874593170887
0.3924262854260778
-0.12322342670263442
-0.9231773641172654
-0.0938000087786739
-0.36097003782583936
0.834111452376213
0.1648154110357185
-0.037016344516201914
0.12783935121803836
-0.5744818159021741
-0.40741062424087304
0.6485691783903498
0.16491020848830384
-0.8465796795349194
0.7280841574255945
-0.8084920251249728
-0.85173358222222
-0.14135690468250567
0.14292056682655052
0.4634311724598146
-0.1949500398239529
-0.3840216525617093
-1.4033490052509747
-0.3986024432519921
-0.04525214059537963
0.8562285653072484
0.0798753349783839
0.5226076436907485
-0.0013446441651173279
-0.7050571523550748
-0.6025946770814374
0.829253538502845
-0.4031018271432578
0.09879674796606097
0.08203836186332597
-0.8759259253628006
0.08623244834263334
-0.5845733461371259
-0.256978032603453
0.34248248570492157
0.5663041676831067
-0.6317312115556333
-0.5834360244278998
-0.06477304974699993
0.04764475673647051
1.0325729924351403
0.49528200714992543
1.4314152795338875
1.2711806523139633
-0.4333256331566937
0.7022706247784107
0.8797935639877181
-0.4951051016514926
-0.003068919863770314
-0.20020691804961638
1.077154652171786
0.8481547444958901
0.4168446910718794
0.25980594210319957
0.3284948601150637
-0.23759698109386165
-0.5287714579908717
0.6937382463619776
-0.9853616978415465
-0.41211342220026226
0.08961725216077387
-0.13171034694966144
0.5775476477109498
-0.05113500123281911
0.28218360301702006
0.4917070944890604
-0.36935618601065273
0.047803652413157316
-0.24005263013257508
0.702830052573306
0.4642824681658304
-0.9653223217037123
-1.0571430788701595
0.4219741411495146
0.051316520368013825
0.1177467648803237
-0.7321782200246798
0.47362074618865724
-0.11551953618172037
-0.830646650127429
-0.5739923723357194
-0.7968446474546547
-0.921341839935782
-0.22205216236512362
-0.8720950534922961
-0.6028106742038366
0.1633589244071567
0.31608902735110767
-1.2595395783991528
-0.8760757018996443
0.03534256883359643
0.07821133319295459
0.5022153953057286
0.31637269923561856
-0.4232851867618208
0.9706224279557538
0.30384646920740743
0.6901078842576358
0.46755700209937556
-0.1547627045741713
0.6630264276019635
0.0816366968614275
0.8425654162884707
0.006311735364155968
-0.9207367366246497
-0.23750552349251564
0.6240860594586997
0.007609931449703344
-0.2791046107389362
0.04945604882303489
0.5751739870042244
-0.15495321420389266
-0.07212353320694859
-0.7588228336908613
0.4641864635520072
-0.8000450938773478
0.7506338239750832
0.8018746753657611
-0.7854640436371132
-0.336204985021255
-0.008934390174670558
-0.13755151013520017
-0.5320096884199317
-0.44382369632814705
-0.19406005500938436
-0.03665117122072097
-0.2212643403114383
-0.5209263934891941
-0.5998065865115308
-0.14710076740963512
0.7720897179239498
0.4221460333692875
0.6384900853344103
0.4509262494362169
0.832464778222406
-0.11197942418862182
0.6636288525328568
-0.7065693584168107
0.07881232927092559
-1.1610762832217958
0.23124828681765797
0.8529451019558241
0.3363935193851211
-0.8725624828122505
0.4030709460355655
0.2187300875372552
-0.8481897373932854
-0.027943046748365105
-0.20760319716530318
-1.4692360533536228
-0.39171039542541886
0.15120906022951375
-0.7509552094755634
-0.18166023430076506
0.9846271495189398
-0.7862220671572575
0.6127325850324743
0.6303231346861218
-0.40091876445619046
-0.7448946952401228
-0.3821557623658203
-1.1150942739169392
-0.5270509976994358
0.9247848892396182
0.6318255581350891
0.24022880707345112
0.8176101167995717
0.9122113556049325
0.05975384342116774
-1.3672906774041647
0.24736788490839934
0.8695070601876966
-0.5971806100971546
-0.5910980621006638
0.24646891271955967
-0.026199359393418442
0.5553681760800957
-1.2602097025297667
-0.8927651156132432
-1.3059058751825043
0.2053487408975272
-0.10850951020213784
0.642282560837949
-0.5970833987173296
-0.9617622655978642
0.19940461747706004
-0.9097076788892413
0.11042316601095403
-0.6256871616088084
-1.3970493760539504
-0.6787734109157488
0.6493597780183997
-0.4735567429695325
-0.8889429624284093
-0.4249378649601945
-0.3058322008692851
0.8853706690146732
0.7226091224684368
0.7795429854589266
-0.3513385159061512
0.8567454508561183
-0.828506582515766
1.424013855353981
1.0788565821251175
1.4869896509756697
1.3644267674926351
1.4719376817373697
0.6723756341482188
1.377246520116602
-0.8294653240540437
0.28154503078444204
0.42950247919091517
1.536533630746836
0.9931101063183455
0.5492322441829173
-0.26870591055345494
-0.2911678522719472
0.6892889912971948
0.030760491863265876
0.8117011117597216
-0.6915098883579198
-0.3573929754533187
0.13446681493068136
-0.7532365070098592
0.18764275604185943
-0.3532815317379463
-0.025827708568356207
0.03840091326511249
0.3080844247265727
-0.044437890345948805
-1.111158778278378
0.2786843505358849
-0.08686408126518042
0.8042393981271456
-0.6647366822516363
0.7711396352597946
0.8298806827773121
0.14145617599965485
-0.6423725984578297
0.8662619406147902
-1.0606218597733839
0.14511475719089617
-0.7170975137462403
-0.349207929947567
0.10220370071948981
-0.25253981844337037
-0.8806223007837052
0.8043225936675975
0.9053969596423757
-0.398548912865605
0.3917911523915768
0.322437164991783
-0.19469329424625825
-0.9042830001648754
0.1952856519771711
0.5317371444151268
-0.6482061562160328
0.8020731556175786
-0.8217445765549245
0.610759962958717
0.2538527498309926
0.04025569439800325
-0.1124650826270317
-0.5960705838468007
-0.7347720082176105
-0.8912039180013478
-1.2347431239283917
0.7111849577015965
-0.8503810758519248
0.8978404709683288
-0.06490624568300501
0.1928782731952321
0.24716397987634967
-0.8928807362123724
-0.9065766623492852
-0.41261522331585865
-0.41262955154054604
0.36217259337739294
0.24476630709786562
0.02081987628423354
-0.8604398069280719
-0.6236757552764906
-0.22307719186341093
1.424764359672813
1.4331365607750093
0.5736615885958783
0.8246704313338195
-0.11102669572203896
0.7172155861646784
0.6894034860031847
-0.9340664448007395
-0.14999587842960618
0.6117337240643664
0.6512429626575004
0.829759898041858
-0.273460918864085
-0.7653399132280508
-0.03513909150409753
-0.6451497884973353
0.4871441976643643
0.5941298514218284
-0.5153348262610327
-0.16164873814492142
0.18207428766958267
-0.3845185407210745
-0.8184087336035173
0.8988624433239887
0.25986784322317114
0.3519989956418684
0.46742212016287527
0.6713815241741214
0.4974129391638356
-0.7216957857662161
0.31684505069846836
0.8719694233269404
-0.3237383564189815
0.5261081436726374
0.541092706573351
-0.9571760937501496
0.8889487700956047
-0.8235963242483095
0.24621448546898755
-0.013930917053388336
-0.010772588876759746
0.6309446914538293
0.47467215575001087
-0.26732773611681565
-0.5235270607271663
-0.2676253315314978
-0.05593417580461457
0.3206680958823771
0.08691985998431233
0.37953460933177285
-0.6375805777056485
0.8671942417581129
-0.8428435191377387
-0.44206698037722786
0.946839677517733
0.055425356880190346
-0.549169778049287
-0.05868594019186535
-0.38892314120191673
0.4928160347772117
0.6378649204443665
-0.5150728802855653
-0.8571513594783206
0.44693017096307286
-0.7307624982581554
-0.7377841825432654
-0.8903766929968036
0.07355052188304811
0.7137094206703335
-0.9617796480347114
0.7577711872765619
-0.04353509872611029
-0.6015625047694495
-0.25918121564007546
-0.870120631571778
0.5455300708888908
-0.13685313789180165
0.3575068377991708
0.12814711445824142
0.8755294650712379
-0.3800353841561232
-0.005565162939674118
-0.7706087656080624
0.4386091850091132
0.21234936548234093
-0.42122513721444005
0.7103396926397584
0.960591325482825
-0.753290536668639
0.9965629944397905
0.9145857190363139
-0.13941946562042204
-0.5227216560092968
-0.18932382936316275
0.8757289751142662
-0.4141804893619597
0.561933972591809
-0.3591098710777691
-0.5423720443265576
-0.37121557875614153
-0.14047957644786013
0.9947498073399963
-0.11773967696526633
0.20350137047911554
-0.38954189086282276
-0.22499745551878197
-0.9231205844862129
-0.31701033074296764
-0.7027517925810054
-0.7991471410591223
0.5403195056046759
0.23128797967435033
-0.10960136486734817
-0.4333351448587299
0.5986382864884174
0.44045825581874315
-0.06556347024205904
-0.23334772589140562
-0.49208706954625403
0.7265776858783913
0.014923302325438037
-0.7716390199301849
-0.23521207713145564
0.7830527755828676
-0.44956016537402216
0.7525486125896355
-0.4895135707894258
0.9477348085502872
-0.09012845373342016
-0.19521544811701833
-0.1851593833662577
0.019622746002975422
-0.6816003411372491
0.49722742401467174
-0.4911403745127558
-0.8233709454340068
-0.18354613474073145
-0.007978914758765164
-0.32118518958087683
-0.5807919137942902
-0.8760432374820606
-0.9349953559070576
-0.47683254401801906
-0.886849847742994
0.2965485267292307
0.25327230167603487
0.3392697340308448
-0.5841515894787881
0.7425743018262481
-0.8576261485348403
0.15109798056145363
-0.6688310081862465
-0.16717112634283285
0.0919295467584235
-0.428626198673387
-0.43375476719677364
0.5607655874285509
0.7665681195588521
0.36075594117009624
-0.5196768322279962
-0.919529897805675
-0.613185585045831
-0.2656014462726386
0.536430249009365
1.0685642880348742
1.0943532245961363
0.5254721043668289
-0.10153621925637131
0.47773611054088394
-0.7096389113316535
-0.3186799992881546
-0.46383542596798905
-0.3552769836509195
0.1492646638993155
0.6984620368503079
-0.2313968261851005
-0.8916122858681853
0.45037679617657883
-0.2085133257544948
0.8445076816944753
0.16533386252248577
-0.21855786212158246
0.27821422391218986
-0.5035227811788174
0.7067728811629839
0.8700421516439163
0.841007921979849
0.33985854033284557
-0.6001853842323629
-0.626857242930297
-0.13822342739123622
-0.3766842073220904
-0.8545726453638072
-0.6150905019223578
0.7180358727601741
-0.3115375958679589
0.5333307271670741
-0.08609958677799506
0.7133037680442198
0.6471540095373822
0.8565700405497547
-0.07171226599122082
-0.7774876083806133
0.589184376081096
0.05598102308409758
-0.6004698462157539
-0.8266597977085336
-0.8841885932527735
0.7308473105940367
-0.9611454217441271
-0.01964675012619248
0.8116486750530676
-0.10587344141898858
-0.22711683526128934
-0.15063798718300722
0.23213163604353695
0.857951054747683
-0.9178863499019942
-0.2040369814620255
-0.9890572373043107
-0.4514377895303839
-0.19706184417598593
0.1898645899406608
-0.30361339874577653
0.14282923029009806
0.4161677463578999
0.43832390899831974
0.6292372106316328
0.07399513571952765
0.6933860752371335
0.01465338629450283
0.05780894006415993
0.05524583915998667
-0.4316190161124507
-0.28568372499749006
0.29462148532321075
0.2895282621657689
0.15932761088896186
-0.8033502422726122
0.727259004879288
0.5136163110659697
0.9032523215857128
-0.633761989082264
0.5412097863137395
0.3530184975258968
0.5907447755411198
0.3131803226085888
-0.24950708815266212
0.4592794136569774
0.36177683268790456
-0.811095220055532
0.4201032219838865
0.565910102284166
-1.0218369440326918
-0.4352161954394539
-0.6542311217879974
0.25682692132834095
0.6894151585965395
-1.057241694137638
-1.036385926148653
-0.22389381479685602
1.0824026596571907
-0.05623544765145305
-0.6893625984223704
-0.1321350797058154
0.7383253968254515
0.8557638591354688
1.0713455101459675
-0.5268368554068912
0.1908026796293588
-0.5787397226897117
0.3376963705436325
0.6521197785328186
-0.9597019618885532
0.5687661813754903
0.4068659160646609
0.40775917021065533
-0.924260656967354
0.186158344459708
0.8684439913294095
0.008083001733152573
0.4474020183583403
0.06839585107885537
0.21290915107884786
-0.10647659062592729
-0.687917102491554
-0.08792397312242205
-0.013940562831365024
0.11923736510777361
-0.1411380098228856
-0.8771428832250732
-0.6416172477034847
0.5873726621647279
0.7232356757058365
0.32060519181406066
0.8525439819968575
-0.12838725777720292
0.972226899203017
0.902647515500838
0.011165741054169537
0.5459839799306243
-0.7143454049336593
-0.7306580719062374
-0.06660084586024873
0.9230801690779683
0.017218152915027474
-0.3219763003924567
-0.6152770618690808
-4.062958438577624E-5
0.940022573403346
0.27831199458634104
-0.544271895200459
0.31004823932576775
-0.8887508951369517
0.7101847729310397
0.0346463888822932
-0.36383900765419064
-0.22200245768906957
-0.9628428100850954
-0.39242755674150676
-0.43517950331231536
-0.2166881450800968
-0.9386803775864417
-0.7553618713403148
-0.2131288773886768
-1.0188279818514787
0.023045085359862084
0.04822341408408398
-0.054371739244201994
0.23369281938256056
-0.6024128508138185
0.06953263201899317
0.3317972689159499
0.15255723094634627
0.905717662393432
1.6252033344023666
2.1981148831451467
2.1270102130354696
0.9943720442710202
0.7510631534199935
-0.15421250602602793
0.01184006039216953
-0.7325813738567097
0.9453822210088206
-0.8260003509402194
-0.6178882869426698
-0.7774124450375121
-0.5448924541425096
-0.9571333462736982
-0.682565719740756
-1.4306786643511935
-1.0510202996140035
-1.307289699853052
-1.328964046034223
-1.9644061773727794
-1.667495629160569
-1.8034693768660814
-1.9858046276438301
-0.2600452742149848
-0.6978449834872782
0.07807544147927711
-0.04794036262973648
-0.9093346039246293
-1.1729445421323157
-1.2380536490125933
-1.9003323744043215
-0.8770056023791168
-1.724327913868865
-1.0621798512194969
0.4083865409177495
-0.42584962378665453
-0.2929000244869851
0.9421516592042881
0.2839702726141878
-0.0717747174362314
-0.8584419752495185
-0.012836697828934627
0.7620829180772862
0.7332365187127545
0.1942669576850756
1.6700923576973885
1.6596923362078233
1.6822025162240044
-0.18814238239920786
0.8390203235992875
0.5936390636985471
1.207404987114766
1.1393976631561742
1.4680257087991893
1.302888275337645
1.5466655746415212
0.33078711606146416
